{"hiddenSize":8,"learningRate":0.01,"W1":[[0.028202307643505113,-0.08333978089933113,0.07891438935166639,0.21068630275541364],[0.034502755038870556,-0.006066041985957878,-0.044229375222986596,-0.16827909709398747],[-0.04282772510429556,0.08405952114411559,0.044723645153387115,0.043223038993386746],[0.0873409102240209,0.12052969886242569,0.05038996126630035,-0.007584678086152564],[0.06949950674582847,-0.007002059633878216,0.06342451836282509,0.12663447162456254],[0.0036498435496351315,-0.16799533234978123,0.020078549284447914,0.23110206824852605],[-0.09200607908741232,0.15299620970472907,-0.004239282458874581,-0.2005647070558495],[0.007267430929947348,-0.02769967553324175,0.0769463933662286,0.22299349362076412]],"b1":[-0.18416766057748774,0.10677463674755369,0.0405686020655353,0.08526459674190115,-0.13030922997932162,-0.20691232301405033,0.19564722983912394,-0.19945622877720248],"W2":[[0.23774296301192724,-0.15283954481451437,-0.018154741084541324,-0.034288053384162125,0.16568238111555333,0.2947353723553111,-0.2209360421235681,0.21903223021000506],[-0.2012362762940113,0.10282197601271299,0.032896722293100936,0.12883679773267845,-0.0875584920082157,-0.24384642979433657,0.2602070016295686,-0.2180710326711496]],"b2":[-1.1351561210353651,1.1351561210353645]}